svm_type c_svc
kernel_type rbf
gamma 0.03333333333333333
nr_class 2
total_sv 165
rho 1.440622924331472
label 0 1
nr_sv 82 83
SV
2.0 0:0.1599999964237213 1:0.019999999552965164 2:0.10700000077486038 3:0.05999999865889549 4:0.06400000303983688 5:0.23999999463558197 6:0.10899999737739563 7:0.004999999888241291 8:0.21299999952316284 9:-0.01600000075995922 10:0.0 11:1.0 12:0.0 13:0.0 14:0.0 15:1.0 16:0.0 17:0.0 18:0.0 19:0.0 20:0.0 21:1.0 22:0.0 23:0.0 24:0.0 25:1.0 26:0.0 27:0.0 28:1.0 29:0.0 
2.0 0:0.23999999463558197 1:-0.019999999552965164 2:0.18700000643730164 3:0.03999999910593033 4:0.24799999594688416 5:-0.019999999552965164 6:0.0860000029206276 7:0.08500000089406967 8:0.3019999861717224 9:0.04399999976158142 10:0.0 11:0.0 12:1.0 13:0.0 14:0.0 15:0.0 16:1.0 17:0.0 18:0.0 19:1.0 20:0.0 21:0.0 22:0.0 23:1.0 24:0.0 25:0.0 26:1.0 27:0.0 28:1.0 29:0.0 
2.0 0:0.20000000298023224 1:0.03999999910593033 2:0.1469999998807907 3:0.10000000149011612 4:0.13600000739097595 5:0.0729999989271164 6:0.17100000381469727 7:0.14499999582767487 8:0.22200000286102295 9:0.10000000149011612 10:0.0 11:0.0 12:0.0 13:0.0 14:1.0 15:0.0 16:0.0 17:1.0 18:0.0 19:0.0 20:0.0 21:1.0 22:0.0 23:0.0 24:0.0 25:0.0 26:0.0 27:1.0 28:0.0 29:0.0 
2.0 0:0.07999999821186066 1:-0.14000000059604645 2:-0.027000000700354576 3:0.15000000596046448 4:0.2720000147819519 5:0.032999999821186066 6:0.28600001335144043 7:0.1850000023841858 8:0.164000004529953 9:0.2280000001192093 10:0.0 11:0.0 12:1.0 13:0.0 14:0.0 15:1.0 16:0.0 17:0.0 18:0.0 19:0.0 20:0.0 21:0.0 22:1.0 23:0.0 24:0.0 25:0.0 26:1.0 27:0.0 28:0.0 29:0.0 
2.0 0:0.07999999821186066 1:0.019999999552965164 2:0.1469999998807907 3:0.10000000149011612 4:0.09600000083446503 5:0.17299999296665192 6:0.017000000923871994 7:0.20499999821186066 8:0.0 9:0.14399999380111694 10:1.0 11:0.0 12:0.0 13:0.0 14:0.0 15:1.0 16:0.0 17:0.0 18:0.0 19:1.0 20:1.0 21:0.0 22:0.0 23:0.0 24:1.0 25:1.0 26:0.0 27:0.0 28:0.0 29:0.0 
2.0 0:0.0 1:0.2199999988079071 2:-0.11999999731779099 3:0.0 4:0.19200000166893005 5:0.0 6:0.03400000184774399 7:0.2199999988079071 8:0.2709999978542328 9:0.04399999976158142 10:1.0 11:0.0 12:0.0 13:0.0 14:1.0 15:1.0 16:0.0 17:0.0 18:0.0 19:1.0 20:0.0 21:0.0 22:0.0 23:0.0 24:0.0 25:0.0 26:0.0 27:1.0 28:1.0 29:0.0 
2.0 0:-0.07999999821186066 1:0.019999999552965164 2:0.2930000126361847 3:0.17000000178813934 4:0.1679999977350235 5:0.15299999713897705 6:0.09099999815225601 7:0.1899999976158142 8:-0.04899999871850014 9:0.2160000056028366 10:0.0 11:0.0 12:0.0 13:0.0 14:1.0 15:0.0 16:0.0 17:1.0 18:0.0 19:1.0 20:0.0 21:0.0 22:0.0 23:0.0 24:0.0 25:0.0 26:0.0 27:0.0 28:0.0 29:1.0 
1.0205846702127606 0:0.2800000011920929 1:0.14000000059604645 2:0.0 3:0.07999999821186066 4:0.2720000147819519 5:-0.007000000216066837 6:0.12600000202655792 7:0.04500000178813934 8:0.09799999743700027 9:-0.01600000075995922 10:1.0 11:0.0 12:0.0 13:1.0 14:0.0 15:0.0 16:1.0 17:0.0 18:0.0 19:0.0 20:0.0 21:0.0 22:0.0 23:0.0 24:0.0 25:0.0 26:0.0 27:1.0 28:1.0 29:0.0 
2.0 0:0.0 1:0.05999999865889549 2:-0.027000000700354576 3:0.14000000059604645 4:-0.024000000208616257 5:0.03999999910593033 6:0.23399999737739563 7:0.28999999165534973 8:0.20900000631809235 9:0.1120000034570694 10:0.0 11:0.0 12:0.0 13:0.0 14:0.0 15:1.0 16:0.0 17:0.0 18:0.0 19:0.0 20:1.0 21:0.0 22:0.0 23:1.0 24:0.0 25:0.0 26:0.0 27:0.0 28:0.0 29:0.0 
1.9017765971676361 0:0.07999999821186066 1:0.2800000011920929 2:0.07999999821186066 3:0.15000000596046448 4:0.06400000303983688 5:-0.03999999910593033 6:0.1599999964237213 7:0.054999999701976776 8:0.07100000232458115 9:0.019999999552965164 10:0.0 11:0.0 12:0.0 13:1.0 14:0.0 15:0.0 16:1.0 17:0.0 18:0.0 19:1.0 20:1.0 21:0.0 22:0.0 23:0.0 24:0.0 25:1.0 26:0.0 27:0.0 28:0.0 29:0.0 
2.0 0:0.11999999731779099 1:0.11999999731779099 2:0.09300000220537186 3:0.18000000715255737 4:0.30399999022483826 5:0.07999999821186066 6:-0.023000000044703484 7:0.3100000023841858 8:0.20900000631809235 9:0.14000000059604645 10:1.0 11:0.0 12:0.0 13:1.0 14:0.0 15:0.0 16:0.0 17:1.0 18:1.0 19:0.0 20:0.0 21:0.0 22:0.0 23:1.0 24:0.0 25:0.0 26:1.0 27:0.0 28:1.0 29:0.0 
2.0 0:0.11999999731779099 1:0.11999999731779099 2:0.06700000166893005 3:0.029999999329447746 4:0.13600000739097595 5:0.07999999821186066 6:0.12600000202655792 7:0.23499999940395355 8:0.21299999952316284 9:-0.035999998450279236 10:1.0 11:1.0 12:0.0 13:0.0 14:0.0 15:0.0 16:1.0 17:0.0 18:0.0 19:0.0 20:1.0 21:0.0 22:0.0 23:1.0 24:0.0 25:0.0 26:0.0 27:1.0 28:1.0 29:0.0 
2.0 0:0.07999999821186066 1:0.03999999910593033 2:0.0 3:0.25 4:0.0 5:0.04699999839067459 6:0.050999999046325684 7:0.014999999664723873 8:0.13300000131130219 9:0.15199999511241913 10:0.0 11:0.0 12:0.0 13:0.0 14:1.0 15:0.0 16:0.0 17:1.0 18:0.0 19:0.0 20:1.0 21:1.0 22:0.0 23:0.0 24:0.0 25:0.0 26:0.0 27:0.0 28:0.0 29:0.0 
2.0 0:0.1599999964237213 1:0.07999999821186066 2:0.07999999821186066 3:0.20999999344348907 4:0.2879999876022339 5:0.36000001430511475 6:0.210999995470047 7:0.0949999988079071 8:0.04399999976158142 9:0.08399999886751175 10:0.0 11:0.0 12:1.0 13:0.0 14:0.0 15:0.0 16:0.0 17:0.0 18:0.0 19:0.0 20:0.0 21:0.0 22:0.0 23:1.0 24:0.0 25:0.0 26:0.0 27:1.0 28:0.0 29:1.0 
2.0 0:0.1599999964237213 1:0.1599999964237213 2:0.0 3:0.1899999976158142 4:0.09600000083446503 5:0.18700000643730164 6:-0.010999999940395355 7:0.16500000655651093 8:0.06199999898672104 9:0.04800000041723251 10:1.0 11:1.0 12:0.0 13:0.0 14:0.0 15:0.0 16:0.0 17:1.0 18:0.0 19:1.0 20:0.0 21:0.0 22:1.0 23:0.0 24:0.0 25:0.0 26:1.0 27:0.0 28:1.0 29:0.0 
2.0 0:0.03999999910593033 1:0.03999999910593033 2:0.18700000643730164 3:0.18000000715255737 4:0.07199999690055847 5:0.19300000369548798 6:0.29100000858306885 7:0.1850000023841858 8:-0.02199999988079071 9:0.09200000017881393 10:1.0 11:0.0 12:1.0 13:0.0 14:0.0 15:1.0 16:0.0 17:0.0 18:1.0 19:0.0 20:0.0 21:0.0 22:1.0 23:0.0 24:0.0 25:0.0 26:0.0 27:1.0 28:0.0 29:1.0 
2.0 0:0.07999999821186066 1:0.14000000059604645 2:0.0 3:0.10000000149011612 4:0.07199999690055847 5:0.17299999296665192 6:-0.06300000101327896 7:0.19499999284744263 8:0.09799999743700027 9:0.15199999511241913 10:1.0 11:1.0 12:0.0 13:0.0 14:0.0 15:0.0 16:1.0 17:0.0 18:0.0 19:0.0 20:0.0 21:0.0 22:0.0 23:0.0 24:1.0 25:1.0 26:0.0 27:0.0 28:1.0 29:0.0 
2.0 0:0.07999999821186066 1:0.03999999910593033 2:-0.05299999937415123 3:0.2199999988079071 4:0.17599999904632568 5:0.04699999839067459 6:-0.006000000052154064 7:0.2199999988079071 8:0.09799999743700027 9:-0.019999999552965164 10:0.0 11:0.0 12:0.0 13:1.0 14:0.0 15:0.0 16:0.0 17:1.0 18:0.0 19:1.0 20:1.0 21:0.0 22:0.0 23:0.0 24:1.0 25:0.0 26:0.0 27:1.0 28:0.0 29:1.0 
1.8383750244271182 0:0.07999999821186066 1:0.10000000149011612 2:0.09300000220537186 3:0.07999999821186066 4:0.18400000035762787 5:0.08699999749660492 6:0.0860000029206276 7:0.1850000023841858 8:0.06700000166893005 9:0.36399999260902405 10:0.0 11:0.0 12:0.0 13:0.0 14:1.0 15:0.0 16:0.0 17:0.0 18:0.0 19:0.0 20:0.0 21:0.0 22:0.0 23:1.0 24:0.0 25:0.0 26:0.0 27:1.0 28:0.0 29:0.0 
2.0 0:0.0 1:0.1599999964237213 2:0.07999999821186066 3:0.25 4:0.01600000075995922 5:0.2800000011920929 6:0.17100000381469727 7:0.054999999701976776 8:0.23999999463558197 9:0.2160000056028366 10:1.0 11:0.0 12:0.0 13:0.0 14:1.0 15:1.0 16:0.0 17:0.0 18:1.0 19:0.0 20:0.0 21:1.0 22:0.0 23:0.0 24:0.0 25:0.0 26:1.0 27:0.0 28:0.0 29:0.0 
2.0 0:0.23999999463558197 1:-0.07999999821186066 2:0.09300000220537186 3:0.23000000417232513 4:0.11999999731779099 5:0.10700000077486038 6:0.1599999964237213 7:-0.06499999761581421 8:0.15600000321865082 9:0.06400000303983688 10:0.0 11:0.0 12:0.0 13:0.0 14:0.0 15:1.0 16:0.0 17:0.0 18:0.0 19:1.0 20:1.0 21:0.0 22:0.0 23:1.0 24:0.0 25:0.0 26:1.0 27:0.0 28:0.0 29:1.0 
1.4304743366249337 0:0.07999999821186066 1:0.20000000298023224 2:0.2930000126361847 3:0.029999999329447746 4:0.18400000035762787 5:0.2070000022649765 6:-0.006000000052154064 7:0.02500000037252903 8:0.15600000321865082 9:0.09600000083446503 10:0.0 11:1.0 12:0.0 13:0.0 14:0.0 15:1.0 16:0.0 17:0.0 18:1.0 19:0.0 20:0.0 21:0.0 22:0.0 23:1.0 24:0.0 25:1.0 26:0.0 27:0.0 28:0.0 29:0.0 
2.0 0:0.03999999910593033 1:-0.019999999552965164 2:0.10700000077486038 3:0.17000000178813934 4:0.0 5:0.06700000166893005 6:0.25099998712539673 7:0.18000000715255737 8:0.3019999861717224 9:0.1120000034570694 10:0.0 11:0.0 12:0.0 13:1.0 14:0.0 15:1.0 16:0.0 17:0.0 18:0.0 19:1.0 20:0.0 21:0.0 22:0.0 23:0.0 24:1.0 25:0.0 26:1.0 27:0.0 28:1.0 29:0.0 
2.0 0:0.03999999910593033 1:0.019999999552965164 2:0.07999999821186066 3:-0.10000000149011612 4:0.30399999022483826 5:-0.007000000216066837 6:0.296999990940094 7:0.33000001311302185 8:0.08900000154972076 9:0.14000000059604645 10:1.0 11:0.0 12:0.0 13:0.0 14:1.0 15:1.0 16:0.0 17:0.0 18:1.0 19:0.0 20:1.0 21:1.0 22:0.0 23:0.0 24:0.0 25:0.0 26:0.0 27:1.0 28:0.0 29:0.0 
1.3936783738860619 0:0.0 1:0.14000000059604645 2:0.3070000112056732 3:0.05000000074505806 4:0.24799999594688416 5:-0.05299999937415123 6:0.2290000021457672 7:0.014999999664723873 8:0.08399999886751175 9:0.20399999618530273 10:0.0 11:1.0 12:0.0 13:0.0 14:0.0 15:0.0 16:0.0 17:1.0 18:0.0 19:0.0 20:0.0 21:0.0 22:0.0 23:0.0 24:1.0 25:0.0 26:0.0 27:1.0 28:0.0 29:1.0 
2.0 0:0.0 1:0.05999999865889549 2:0.06700000166893005 3:0.09000000357627869 4:-0.00800000037997961 5:0.08699999749660492 6:0.028999999165534973 7:0.03500000014901161 8:0.1379999965429306 9:0.2240000069141388 10:0.0 11:0.0 12:0.0 13:1.0 14:0.0 15:0.0 16:0.0 17:0.0 18:0.0 19:1.0 20:1.0 21:0.0 22:0.0 23:1.0 24:0.0 25:0.0 26:0.0 27:0.0 28:1.0 29:0.0 
2.0 0:0.07999999821186066 1:0.0 2:0.18700000643730164 3:-0.14000000059604645 4:0.1599999964237213 5:0.0729999989271164 6:0.11999999731779099 7:0.10499999672174454 8:-0.1509999930858612 9:0.1080000028014183 10:1.0 11:0.0 12:0.0 13:0.0 14:1.0 15:0.0 16:1.0 17:0.0 18:1.0 19:0.0 20:0.0 21:0.0 22:0.0 23:0.0 24:1.0 25:1.0 26:0.0 27:0.0 28:0.0 29:1.0 
2.0 0:0.07999999821186066 1:0.23999999463558197 2:0.09300000220537186 3:0.07999999821186066 4:0.09600000083446503 5:0.1599999964237213 6:0.11999999731779099 7:0.1850000023841858 8:0.3160000145435333 9:0.18000000715255737 10:0.0 11:1.0 12:0.0 13:0.0 14:0.0 15:1.0 16:0.0 17:0.0 18:0.0 19:1.0 20:1.0 21:0.0 22:0.0 23:1.0 24:0.0 25:0.0 26:0.0 27:1.0 28:1.0 29:0.0 
2.0 0:0.11999999731779099 1:0.23999999463558197 2:0.09300000220537186 3:0.029999999329447746 4:0.11999999731779099 5:0.09300000220537186 6:-0.1599999964237213 7:0.05000000074505806 8:0.257999986410141 9:0.052000001072883606 10:1.0 11:0.0 12:0.0 13:0.0 14:0.0 15:0.0 16:1.0 17:0.0 18:0.0 19:1.0 20:1.0 21:0.0 22:1.0 23:0.0 24:0.0 25:1.0 26:0.0 27:0.0 28:0.0 29:0.0 
1.69357542343612 0:0.07999999821186066 1:0.11999999731779099 2:0.1599999964237213 3:0.1599999964237213 4:0.01600000075995922 5:0.11999999731779099 6:0.07400000095367432 7:0.08500000089406967 8:0.17299999296665192 9:0.10400000214576721 10:1.0 11:1.0 12:0.0 13:0.0 14:0.0 15:0.0 16:1.0 17:0.0 18:0.0 19:0.0 20:1.0 21:0.0 22:0.0 23:0.0 24:1.0 25:1.0 26:0.0 27:0.0 28:0.0 29:0.0 
1.5962694848413177 0:0.0 1:0.07999999821186066 2:0.23999999463558197 3:0.14000000059604645 4:0.06400000303983688 5:0.10700000077486038 6:0.010999999940395355 7:0.1550000011920929 8:-0.10700000077486038 9:0.3319999873638153 10:1.0 11:0.0 12:0.0 13:1.0 14:0.0 15:1.0 16:0.0 17:0.0 18:0.0 19:0.0 20:1.0 21:0.0 22:0.0 23:0.0 24:1.0 25:0.0 26:0.0 27:1.0 28:0.0 29:0.0 
2.0 0:0.1599999964237213 1:0.14000000059604645 2:0.03999999910593033 3:0.029999999329447746 4:-0.00800000037997961 5:0.07999999821186066 6:0.11999999731779099 7:0.13500000536441803 8:-0.027000000700354576 9:0.2280000001192093 10:1.0 11:0.0 12:1.0 13:0.0 14:0.0 15:0.0 16:1.0 17:0.0 18:0.0 19:1.0 20:1.0 21:0.0 22:1.0 23:0.0 24:0.0 25:0.0 26:0.0 27:0.0 28:0.0 29:0.0 
0.6883720210983754 0:0.0 1:0.0 2:0.06700000166893005 3:0.23999999463558197 4:0.20800000429153442 5:0.3199999928474426 6:0.11400000005960464 7:0.17000000178813934 8:-0.07100000232458115 9:0.18000000715255737 10:1.0 11:0.0 12:1.0 13:0.0 14:0.0 15:1.0 16:0.0 17:0.0 18:1.0 19:0.0 20:0.0 21:0.0 22:0.0 23:1.0 24:0.0 25:1.0 26:0.0 27:0.0 28:0.0 29:1.0 
2.0 0:0.23999999463558197 1:-0.07999999821186066 2:0.09300000220537186 3:0.23000000417232513 4:0.11999999731779099 5:0.10700000077486038 6:0.1599999964237213 7:-0.06499999761581421 8:0.15600000321865082 9:0.06400000303983688 10:0.0 11:0.0 12:0.0 13:0.0 14:0.0 15:1.0 16:0.0 17:0.0 18:0.0 19:1.0 20:1.0 21:0.0 22:0.0 23:1.0 24:0.0 25:0.0 26:1.0 27:0.0 28:0.0 29:1.0 
1.8786446655096631 0:0.07999999821186066 1:0.20000000298023224 2:0.2930000126361847 3:0.029999999329447746 4:0.18400000035762787 5:0.2070000022649765 6:-0.006000000052154064 7:0.02500000037252903 8:0.15600000321865082 9:0.09600000083446503 10:0.0 11:1.0 12:0.0 13:0.0 14:0.0 15:1.0 16:0.0 17:0.0 18:1.0 19:0.0 20:0.0 21:0.0 22:0.0 23:1.0 24:0.0 25:1.0 26:0.0 27:0.0 28:0.0 29:0.0 
2.0 0:0.03999999910593033 1:-0.019999999552965164 2:0.10700000077486038 3:0.17000000178813934 4:0.0 5:0.06700000166893005 6:0.25099998712539673 7:0.18000000715255737 8:0.3019999861717224 9:0.1120000034570694 10:0.0 11:0.0 12:0.0 13:1.0 14:0.0 15:1.0 16:0.0 17:0.0 18:0.0 19:1.0 20:0.0 21:0.0 22:0.0 23:0.0 24:1.0 25:0.0 26:1.0 27:0.0 28:1.0 29:0.0 
2.0 0:0.0 1:0.019999999552965164 2:0.027000000700354576 3:0.2199999988079071 4:0.0 5:0.0 6:0.03400000184774399 7:0.14499999582767487 8:0.2800000011920929 9:0.05999999865889549 10:1.0 11:1.0 12:0.0 13:0.0 14:0.0 15:0.0 16:0.0 17:1.0 18:0.0 19:0.0 20:1.0 21:1.0 22:0.0 23:0.0 24:0.0 25:1.0 26:0.0 27:0.0 28:1.0 29:0.0 
2.0 0:0.03999999910593033 1:0.019999999552965164 2:0.07999999821186066 3:-0.10000000149011612 4:0.30399999022483826 5:-0.007000000216066837 6:0.296999990940094 7:0.33000001311302185 8:0.08900000154972076 9:0.14000000059604645 10:1.0 11:0.0 12:0.0 13:0.0 14:1.0 15:1.0 16:0.0 17:0.0 18:1.0 19:0.0 20:1.0 21:1.0 22:0.0 23:0.0 24:0.0 25:0.0 26:0.0 27:1.0 28:0.0 29:0.0 
2.0 0:0.23999999463558197 1:0.10000000149011612 2:0.06700000166893005 3:0.17000000178813934 4:0.1679999977350235 5:0.17299999296665192 6:0.0860000029206276 7:0.08500000089406967 8:0.008999999612569809 9:0.30399999022483826 10:0.0 11:0.0 12:0.0 13:1.0 14:0.0 15:0.0 16:0.0 17:1.0 18:0.0 19:0.0 20:1.0 21:0.0 22:0.0 23:0.0 24:0.0 25:0.0 26:0.0 27:0.0 28:0.0 29:1.0 
2.0 0:0.0 1:0.14000000059604645 2:0.3070000112056732 3:0.05000000074505806 4:0.24799999594688416 5:-0.05299999937415123 6:0.2290000021457672 7:0.014999999664723873 8:0.08399999886751175 9:0.20399999618530273 10:0.0 11:1.0 12:0.0 13:0.0 14:0.0 15:0.0 16:0.0 17:1.0 18:0.0 19:0.0 20:0.0 21:0.0 22:0.0 23:0.0 24:1.0 25:0.0 26:0.0 27:1.0 28:0.0 29:1.0 
2.0 0:0.0 1:0.05999999865889549 2:0.06700000166893005 3:0.09000000357627869 4:-0.00800000037997961 5:0.08699999749660492 6:0.028999999165534973 7:0.03500000014901161 8:0.1379999965429306 9:0.2240000069141388 10:0.0 11:0.0 12:0.0 13:1.0 14:0.0 15:0.0 16:0.0 17:0.0 18:0.0 19:1.0 20:1.0 21:0.0 22:0.0 23:1.0 24:0.0 25:0.0 26:0.0 27:0.0 28:1.0 29:0.0 
2.0 0:0.07999999821186066 1:0.0 2:0.18700000643730164 3:-0.14000000059604645 4:0.1599999964237213 5:0.0729999989271164 6:0.11999999731779099 7:0.10499999672174454 8:-0.1509999930858612 9:0.1080000028014183 10:1.0 11:0.0 12:0.0 13:0.0 14:1.0 15:0.0 16:1.0 17:0.0 18:1.0 19:0.0 20:0.0 21:0.0 22:0.0 23:0.0 24:1.0 25:1.0 26:0.0 27:0.0 28:0.0 29:1.0 
1.8223728905427183 0:0.03999999910593033 1:0.0 2:0.0 3:0.11999999731779099 4:-0.06400000303983688 5:0.22699999809265137 6:0.14900000393390656 7:0.0 8:0.11999999731779099 9:0.20800000429153442 10:1.0 11:0.0 12:0.0 13:0.0 14:0.0 15:0.0 16:1.0 17:0.0 18:1.0 19:0.0 20:0.0 21:1.0 22:0.0 23:0.0 24:0.0 25:0.0 26:0.0 27:1.0 28:0.0 29:0.0 
2.0 0:0.07999999821186066 1:0.23999999463558197 2:0.09300000220537186 3:0.07999999821186066 4:0.09600000083446503 5:0.1599999964237213 6:0.11999999731779099 7:0.1850000023841858 8:0.3160000145435333 9:0.18000000715255737 10:0.0 11:1.0 12:0.0 13:0.0 14:0.0 15:1.0 16:0.0 17:0.0 18:0.0 19:1.0 20:1.0 21:0.0 22:0.0 23:1.0 24:0.0 25:0.0 26:0.0 27:1.0 28:1.0 29:0.0 
2.0 0:0.11999999731779099 1:0.23999999463558197 2:0.09300000220537186 3:0.029999999329447746 4:0.11999999731779099 5:0.09300000220537186 6:-0.1599999964237213 7:0.05000000074505806 8:0.257999986410141 9:0.052000001072883606 10:1.0 11:0.0 12:0.0 13:0.0 14:0.0 15:0.0 16:1.0 17:0.0 18:0.0 19:1.0 20:1.0 21:0.0 22:1.0 23:0.0 24:0.0 25:1.0 26:0.0 27:0.0 28:0.0 29:0.0 
1.9993303258563642 0:0.07999999821186066 1:0.11999999731779099 2:0.1599999964237213 3:0.1599999964237213 4:0.01600000075995922 5:0.11999999731779099 6:0.07400000095367432 7:0.08500000089406967 8:0.17299999296665192 9:0.10400000214576721 10:1.0 11:1.0 12:0.0 13:0.0 14:0.0 15:0.0 16:1.0 17:0.0 18:0.0 19:0.0 20:1.0 21:0.0 22:0.0 23:0.0 24:1.0 25:1.0 26:0.0 27:0.0 28:0.0 29:0.0 
2.0 0:0.0 1:0.07999999821186066 2:0.23999999463558197 3:0.14000000059604645 4:0.06400000303983688 5:0.10700000077486038 6:0.010999999940395355 7:0.1550000011920929 8:-0.10700000077486038 9:0.3319999873638153 10:1.0 11:0.0 12:0.0 13:1.0 14:0.0 15:1.0 16:0.0 17:0.0 18:0.0 19:0.0 20:1.0 21:0.0 22:0.0 23:0.0 24:1.0 25:0.0 26:0.0 27:1.0 28:0.0 29:0.0 
2.0 0:0.1599999964237213 1:0.14000000059604645 2:0.03999999910593033 3:0.029999999329447746 4:-0.00800000037997961 5:0.07999999821186066 6:0.11999999731779099 7:0.13500000536441803 8:-0.027000000700354576 9:0.2280000001192093 10:1.0 11:0.0 12:1.0 13:0.0 14:0.0 15:0.0 16:1.0 17:0.0 18:0.0 19:1.0 20:1.0 21:0.0 22:1.0 23:0.0 24:0.0 25:0.0 26:0.0 27:0.0 28:0.0 29:0.0 
0.18100447031428119 0:0.0 1:0.03999999910593033 2:-0.05299999937415123 3:0.12999999523162842 4:0.1599999964237213 5:0.09300000220537186 6:0.05700000002980232 7:0.11999999731779099 8:0.15600000321865082 9:0.14399999380111694 10:1.0 11:0.0 12:0.0 13:0.0 14:1.0 15:0.0 16:0.0 17:1.0 18:0.0 19:1.0 20:0.0 21:0.0 22:0.0 23:1.0 24:0.0 25:0.0 26:0.0 27:1.0 28:1.0 29:0.0 
0.6964337881819018 0:0.03999999910593033 1:0.0 2:0.2529999911785126 3:0.10999999940395355 4:0.1120000034570694 5:0.18700000643730164 6:0.050999999046325684 7:0.12999999523162842 8:0.08900000154972076 9:0.18799999356269836 10:1.0 11:0.0 12:0.0 13:1.0 14:0.0 15:1.0 16:0.0 17:0.0 18:0.0 19:1.0 20:0.0 21:0.0 22:0.0 23:0.0 24:1.0 25:0.0 26:1.0 27:0.0 28:1.0 29:0.0 
2.0 0:0.07999999821186066 1:0.1599999964237213 2:0.09300000220537186 3:0.09000000357627869 4:0.08799999952316284 5:0.032999999821186066 6:0.03400000184774399 7:0.2750000059604645 8:0.08900000154972076 9:0.3840000033378601 10:1.0 11:1.0 12:0.0 13:0.0 14:0.0 15:0.0 16:0.0 17:0.0 18:1.0 19:0.0 20:1.0 21:0.0 22:0.0 23:1.0 24:0.0 25:1.0 26:0.0 27:0.0 28:0.0 29:0.0 
2.0 0:0.07999999821186066 1:0.23999999463558197 2:0.13300000131130219 3:0.019999999552965164 4:0.0 5:0.20000000298023224 6:0.11400000005960464 7:-0.009999999776482582 8:0.18199999630451202 9:0.17599999904632568 10:1.0 11:0.0 12:0.0 13:0.0 14:1.0 15:1.0 16:0.0 17:0.0 18:0.0 19:1.0 20:0.0 21:0.0 22:0.0 23:0.0 24:1.0 25:1.0 26:0.0 27:0.0 28:1.0 29:0.0 
2.0 0:0.03999999910593033 1:0.30000001192092896 2:0.09300000220537186 3:0.10000000149011612 4:0.12800000607967377 5:0.2199999988079071 6:0.07400000095367432 7:0.07500000298023224 8:0.11100000143051147 9:-0.19200000166893005 10:1.0 11:0.0 12:0.0 13:1.0 14:0.0 15:1.0 16:0.0 17:0.0 18:1.0 19:0.0 20:0.0 21:0.0 22:0.0 23:0.0 24:1.0 25:0.0 26:0.0 27:1.0 28:0.0 29:0.0 
2.0 0:0.2800000011920929 1:0.23999999463558197 2:0.06700000166893005 3:0.17000000178813934 4:0.09600000083446503 5:0.34700000286102295 6:0.0860000029206276 7:-0.04500000178813934 8:0.1379999965429306 9:-0.04800000041723251 10:1.0 11:0.0 12:0.0 13:1.0 14:0.0 15:0.0 16:0.0 17:0.0 18:0.0 19:0.0 20:1.0 21:1.0 22:0.0 23:0.0 24:0.0 25:0.0 26:0.0 27:1.0 28:1.0 29:0.0 
2.0 0:0.2800000011920929 1:0.03999999910593033 2:0.013000000268220901 3:0.0 4:0.03200000151991844 5:0.20000000298023224 6:-0.09099999815225601 7:0.1599999964237213 8:0.05299999937415123 9:0.06800000369548798 10:0.0 11:0.0 12:0.0 13:1.0 14:0.0 15:0.0 16:0.0 17:0.0 18:1.0 19:0.0 20:1.0 21:0.0 22:0.0 23:1.0 24:0.0 25:1.0 26:0.0 27:0.0 28:0.0 29:1.0 
2.0 0:0.11999999731779099 1:0.019999999552965164 2:0.05299999937415123 3:0.009999999776482582 4:0.31200000643730164 5:0.08699999749660492 6:0.20600000023841858 7:0.10000000149011612 8:0.10199999809265137 9:0.21199999749660492 10:0.0 11:0.0 12:0.0 13:0.0 14:0.0 15:0.0 16:1.0 17:0.0 18:0.0 19:0.0 20:0.0 21:0.0 22:0.0 23:0.0 24:1.0 25:0.0 26:0.0 27:0.0 28:0.0 29:1.0 
1.0918566230453233 0:0.1599999964237213 1:0.1599999964237213 2:0.1469999998807907 3:0.0 4:0.1679999977350235 5:0.1469999998807907 6:0.210999995470047 7:0.10499999672174454 8:0.257999986410141 9:0.07199999690055847 10:1.0 11:0.0 12:0.0 13:0.0 14:0.0 15:0.0 16:0.0 17:0.0 18:0.0 19:1.0 20:0.0 21:1.0 22:0.0 23:0.0 24:0.0 25:1.0 26:0.0 27:0.0 28:1.0 29:0.0 
2.0 0:0.07999999821186066 1:0.0 2:0.1469999998807907 3:-0.009999999776482582 4:0.20800000429153442 5:-0.04699999839067459 6:0.16599999368190765 7:-0.07000000029802322 8:-0.013000000268220901 9:-0.00800000037997961 10:1.0 11:0.0 12:0.0 13:0.0 14:0.0 15:0.0 16:0.0 17:0.0 18:1.0 19:0.0 20:0.0 21:0.0 22:1.0 23:0.0 24:0.0 25:0.0 26:0.0 27:1.0 28:0.0 29:1.0 
1.3870284778851258 0:0.07999999821186066 1:-0.019999999552965164 2:0.20000000298023224 3:0.2800000011920929 4:0.20800000429153442 5:0.10700000077486038 6:0.21699999272823334 7:0.06499999761581421 8:0.035999998450279236 9:0.012000000104308128 10:0.0 11:0.0 12:0.0 13:1.0 14:0.0 15:0.0 16:0.0 17:1.0 18:0.0 19:0.0 20:0.0 21:0.0 22:0.0 23:0.0 24:1.0 25:0.0 26:0.0 27:1.0 28:0.0 29:0.0 
2.0 0:0.07999999821186066 1:0.14000000059604645 2:0.07999999821186066 3:0.1899999976158142 4:0.024000000208616257 5:0.31299999356269836 6:0.05700000002980232 7:0.11500000208616257 8:0.1509999930858612 9:0.2840000092983246 10:1.0 11:0.0 12:0.0 13:1.0 14:0.0 15:0.0 16:1.0 17:0.0 18:0.0 19:1.0 20:1.0 21:0.0 22:0.0 23:0.0 24:0.0 25:1.0 26:0.0 27:0.0 28:1.0 29:0.0 
2.0 0:0.3199999928474426 1:0.20000000298023224 2:0.20000000298023224 3:-0.009999999776482582 4:0.1120000034570694 5:0.24699999392032623 6:0.1599999964237213 7:0.06499999761581421 8:0.10700000077486038 9:0.19200000166893005 10:1.0 11:0.0 12:0.0 13:1.0 14:0.0 15:1.0 16:0.0 17:0.0 18:0.0 19:0.0 20:0.0 21:0.0 22:0.0 23:0.0 24:0.0 25:0.0 26:0.0 27:0.0 28:1.0 29:0.0 
2.0 0:0.1599999964237213 1:0.14000000059604645 2:0.10700000077486038 3:0.20000000298023224 4:0.11999999731779099 5:0.09300000220537186 6:0.3659999966621399 7:0.10499999672174454 8:-0.008999999612569809 9:0.17599999904632568 10:1.0 11:0.0 12:0.0 13:0.0 14:1.0 15:0.0 16:0.0 17:0.0 18:1.0 19:0.0 20:0.0 21:0.0 22:0.0 23:1.0 24:0.0 25:1.0 26:0.0 27:0.0 28:0.0 29:0.0 
2.0 0:0.11999999731779099 1:0.07999999821186066 2:0.013000000268220901 3:0.03999999910593033 4:0.14399999380111694 5:-0.007000000216066837 6:0.028999999165534973 7:0.07500000298023224 8:0.16899999976158142 9:0.024000000208616257 10:1.0 11:0.0 12:1.0 13:0.0 14:0.0 15:0.0 16:1.0 17:0.0 18:0.0 19:0.0 20:1.0 21:0.0 22:0.0 23:0.0 24:1.0 25:0.0 26:1.0 27:0.0 28:0.0 29:1.0 
0.1802649438192689 0:0.11999999731779099 1:0.14000000059604645 2:0.10700000077486038 3:0.10999999940395355 4:-0.03999999910593033 5:0.027000000700354576 6:-0.03999999910593033 7:-0.17499999701976776 8:0.08399999886751175 9:0.2720000147819519 10:1.0 11:1.0 12:0.0 13:0.0 14:0.0 15:0.0 16:0.0 17:0.0 18:0.0 19:0.0 20:1.0 21:1.0 22:0.0 23:0.0 24:0.0 25:0.0 26:1.0 27:0.0 28:1.0 29:0.0 
2.0 0:0.1599999964237213 1:0.03999999910593033 2:0.07999999821186066 3:0.17000000178813934 4:0.14399999380111694 5:0.1599999964237213 6:0.006000000052154064 7:0.17499999701976776 8:0.07999999821186066 9:0.024000000208616257 10:1.0 11:0.0 12:0.0 13:0.0 14:1.0 15:1.0 16:0.0 17:0.0 18:0.0 19:1.0 20:1.0 21:0.0 22:1.0 23:0.0 24:0.0 25:0.0 26:0.0 27:1.0 28:0.0 29:1.0 
2.0 0:0.11999999731779099 1:-0.10000000149011612 2:0.22699999809265137 3:0.029999999329447746 4:0.06400000303983688 5:-0.10000000149011612 6:0.26899999380111694 7:0.13500000536441803 8:0.12399999797344208 9:-0.035999998450279236 10:0.0 11:1.0 12:0.0 13:0.0 14:0.0 15:1.0 16:0.0 17:0.0 18:1.0 19:0.0 20:1.0 21:1.0 22:0.0 23:0.0 24:0.0 25:1.0 26:0.0 27:0.0 28:0.0 29:0.0 
2.0 0:0.11999999731779099 1:-0.019999999552965164 2:0.11999999731779099 3:0.03999999910593033 4:0.2160000056028366 5:0.2529999911785126 6:0.10300000011920929 7:0.15000000596046448 8:0.1420000046491623 9:0.11999999731779099 10:1.0 11:0.0 12:1.0 13:0.0 14:0.0 15:0.0 16:0.0 17:1.0 18:0.0 19:0.0 20:0.0 21:0.0 22:0.0 23:1.0 24:0.0 25:0.0 26:0.0 27:0.0 28:1.0 29:0.0 
2.0 0:0.1599999964237213 1:0.10000000149011612 2:0.21299999952316284 3:0.07999999821186066 4:0.15199999511241913 5:0.013000000268220901 6:0.11400000005960464 7:0.1899999976158142 8:0.3019999861717224 9:0.07199999690055847 10:0.0 11:0.0 12:0.0 13:1.0 14:0.0 15:0.0 16:0.0 17:1.0 18:0.0 19:1.0 20:1.0 21:0.0 22:0.0 23:0.0 24:0.0 25:1.0 26:0.0 27:0.0 28:0.0 29:1.0 
0.21882685981875205 0:0.20000000298023224 1:0.10000000149011612 2:0.09300000220537186 3:0.0 4:0.04800000041723251 5:0.11999999731779099 6:0.11999999731779099 7:0.22499999403953552 8:0.19599999487400055 9:0.13199999928474426 10:1.0 11:1.0 12:0.0 13:0.0 14:0.0 15:0.0 16:0.0 17:0.0 18:1.0 19:0.0 20:1.0 21:0.0 22:0.0 23:1.0 24:0.0 25:0.0 26:0.0 27:0.0 28:0.0 29:1.0 
1.8105549046195057 0:0.07999999821186066 1:0.07999999821186066 2:0.17299999296665192 3:0.18000000715255737 4:0.0 5:-0.10700000077486038 6:0.16599999368190765 7:0.03500000014901161 8:0.07999999821186066 9:0.24799999594688416 10:1.0 11:1.0 12:0.0 13:0.0 14:0.0 15:1.0 16:0.0 17:0.0 18:1.0 19:0.0 20:0.0 21:0.0 22:1.0 23:0.0 24:0.0 25:0.0 26:0.0 27:1.0 28:0.0 29:0.0 
2.0 0:0.0 1:0.07999999821186066 2:0.1469999998807907 3:0.27000001072883606 4:0.1599999964237213 5:0.12700000405311584 6:0.3490000069141388 7:0.009999999776482582 8:0.1289999932050705 9:0.20000000298023224 10:0.0 11:0.0 12:0.0 13:1.0 14:0.0 15:0.0 16:0.0 17:0.0 18:0.0 19:0.0 20:1.0 21:0.0 22:1.0 23:0.0 24:0.0 25:1.0 26:0.0 27:0.0 28:0.0 29:0.0 
0.22246490341721464 0:0.23999999463558197 1:-0.07999999821186066 2:0.1469999998807907 3:-0.009999999776482582 4:0.06400000303983688 5:0.08699999749660492 6:0.15399999916553497 7:-0.03500000014901161 8:0.11999999731779099 9:-0.03999999910593033 10:1.0 11:0.0 12:1.0 13:0.0 14:0.0 15:0.0 16:0.0 17:0.0 18:0.0 19:0.0 20:0.0 21:0.0 22:0.0 23:0.0 24:1.0 25:0.0 26:0.0 27:1.0 28:0.0 29:0.0 
2.0 0:-0.03999999910593033 1:0.019999999552965164 2:-0.1469999998807907 3:-0.05999999865889549 4:0.25600001215934753 5:0.2329999953508377 6:0.20000000298023224 7:-0.03999999910593033 8:0.1509999930858612 9:-0.004000000189989805 10:1.0 11:0.0 12:0.0 13:0.0 14:1.0 15:1.0 16:0.0 17:0.0 18:0.0 19:0.0 20:1.0 21:0.0 22:0.0 23:0.0 24:1.0 25:1.0 26:0.0 27:0.0 28:0.0 29:1.0 
2.0 0:0.0 1:0.019999999552965164 2:0.11999999731779099 3:0.14000000059604645 4:0.1120000034570694 5:0.007000000216066837 6:0.023000000044703484 7:0.16500000655651093 8:0.06700000166893005 9:0.06400000303983688 10:1.0 11:1.0 12:0.0 13:0.0 14:0.0 15:0.0 16:0.0 17:1.0 18:1.0 19:0.0 20:0.0 21:0.0 22:0.0 23:0.0 24:1.0 25:0.0 26:0.0 27:0.0 28:0.0 29:0.0 
2.0 0:0.0 1:0.10000000149011612 2:0.03999999910593033 3:0.20999999344348907 4:0.13600000739097595 5:0.06700000166893005 6:0.0 7:0.09000000357627869 8:0.06199999898672104 9:0.024000000208616257 10:1.0 11:0.0 12:0.0 13:1.0 14:0.0 15:0.0 16:0.0 17:1.0 18:1.0 19:0.0 20:1.0 21:0.0 22:0.0 23:0.0 24:1.0 25:0.0 26:0.0 27:1.0 28:0.0 29:0.0 
2.0 0:0.11999999731779099 1:0.0 2:0.07999999821186066 3:0.03999999910593033 4:0.20000000298023224 5:0.10000000149011612 6:0.14300000667572021 7:0.22499999403953552 8:0.18199999630451202 9:0.17599999904632568 10:1.0 11:0.0 12:0.0 13:0.0 14:1.0 15:0.0 16:0.0 17:1.0 18:0.0 19:0.0 20:1.0 21:1.0 22:0.0 23:0.0 24:0.0 25:0.0 26:1.0 27:0.0 28:0.0 29:1.0 
0.3251982688142674 0:0.07999999821186066 1:0.14000000059604645 2:-0.09300000220537186 3:0.03999999910593033 4:0.07199999690055847 5:-0.019999999552965164 6:0.210999995470047 7:0.17499999701976776 8:0.04399999976158142 9:0.2720000147819519 10:1.0 11:0.0 12:0.0 13:0.0 14:1.0 15:0.0 16:0.0 17:0.0 18:1.0 19:0.0 20:0.0 21:1.0 22:0.0 23:0.0 24:0.0 25:0.0 26:1.0 27:0.0 28:0.0 29:1.0 
2.0 0:0.1599999964237213 1:0.23999999463558197 2:-0.013000000268220901 3:-0.029999999329447746 4:0.1599999964237213 5:0.08699999749660492 6:0.04600000008940697 7:0.11999999731779099 8:-0.07100000232458115 9:0.12800000607967377 10:1.0 11:0.0 12:0.0 13:0.0 14:0.0 15:0.0 16:1.0 17:0.0 18:1.0 19:0.0 20:0.0 21:0.0 22:1.0 23:0.0 24:0.0 25:0.0 26:0.0 27:1.0 28:0.0 29:1.0 
1.5904661401487619 0:0.03999999910593033 1:0.14000000059604645 2:0.1599999964237213 3:0.09000000357627869 4:-0.09600000083446503 5:0.1469999998807907 6:0.09099999815225601 7:0.12999999523162842 8:0.035999998450279236 9:0.3479999899864197 10:1.0 11:0.0 12:0.0 13:1.0 14:0.0 15:0.0 16:0.0 17:1.0 18:0.0 19:0.0 20:1.0 21:1.0 22:0.0 23:0.0 24:0.0 25:0.0 26:0.0 27:0.0 28:1.0 29:0.0 
1.3802332650454718 0:0.11999999731779099 1:0.18000000715255737 2:-0.07999999821186066 3:0.009999999776482582 4:0.23199999332427979 5:0.10700000077486038 6:0.1599999964237213 7:0.02500000037252903 8:0.11599999666213989 9:-0.019999999552965164 10:1.0 11:0.0 12:0.0 13:0.0 14:1.0 15:0.0 16:1.0 17:0.0 18:0.0 19:0.0 20:0.0 21:0.0 22:0.0 23:0.0 24:1.0 25:0.0 26:1.0 27:0.0 28:0.0 29:0.0 
2.0 0:0.0 1:0.30000001192092896 2:0.10700000077486038 3:0.03999999910593033 4:0.18400000035762787 5:0.032999999821186066 6:0.017000000923871994 7:0.26499998569488525 8:-0.004000000189989805 9:0.20000000298023224 10:1.0 11:0.0 12:0.0 13:1.0 14:0.0 15:0.0 16:0.0 17:1.0 18:1.0 19:0.0 20:0.0 21:0.0 22:0.0 23:0.0 24:0.0 25:0.0 26:1.0 27:0.0 28:1.0 29:0.0 
2.0 0:0.07999999821186066 1:0.03999999910593033 2:0.1469999998807907 3:0.17000000178813934 4:0.024000000208616257 5:0.0 6:0.10300000011920929 7:0.05000000074505806 8:0.1469999998807907 9:-0.07599999755620956 10:0.0 11:0.0 12:0.0 13:0.0 14:0.0 15:0.0 16:1.0 17:0.0 18:0.0 19:1.0 20:0.0 21:0.0 22:0.0 23:0.0 24:1.0 25:0.0 26:1.0 27:0.0 28:0.0 29:1.0 
-2.0 0:0.0 1:0.10000000149011612 2:0.2930000126361847 3:0.25999999046325684 4:0.1120000034570694 5:0.5199999809265137 6:-0.09700000286102295 7:0.10000000149011612 8:0.46700000762939453 9:0.07999999821186066 10:0.0 11:0.0 12:0.0 13:1.0 14:0.0 15:0.0 16:0.0 17:1.0 18:0.0 19:1.0 20:0.0 21:0.0 22:0.0 23:0.0 24:1.0 25:1.0 26:0.0 27:0.0 28:1.0 29:0.0 
-0.5245564183870746 0:-0.03999999910593033 1:0.2800000011920929 2:0.18700000643730164 3:0.12999999523162842 4:0.36800000071525574 5:0.6399999856948853 6:0.22300000488758087 7:-0.09000000357627869 8:0.2930000126361847 9:0.35600000619888306 10:0.0 11:0.0 12:0.0 13:0.0 14:1.0 15:0.0 16:0.0 17:0.0 18:1.0 19:0.0 20:0.0 21:0.0 22:0.0 23:0.0 24:0.0 25:1.0 26:0.0 27:0.0 28:0.0 29:1.0 
-2.0 0:0.20000000298023224 1:0.41999998688697815 2:0.34700000286102295 3:-0.10000000149011612 4:0.18400000035762787 5:0.2800000011920929 6:0.4059999883174896 7:0.3400000035762787 8:0.20900000631809235 9:-0.24400000274181366 10:1.0 11:0.0 12:1.0 13:0.0 14:0.0 15:1.0 16:0.0 17:0.0 18:1.0 19:0.0 20:0.0 21:0.0 22:0.0 23:1.0 24:0.0 25:0.0 26:0.0 27:1.0 28:1.0 29:0.0 
-2.0 0:0.0 1:0.4399999976158142 2:0.21299999952316284 3:0.12999999523162842 4:0.14399999380111694 5:0.04699999839067459 6:0.5260000228881836 7:-0.054999999701976776 8:0.004000000189989805 9:0.13600000739097595 10:0.0 11:0.0 12:1.0 13:0.0 14:0.0 15:0.0 16:1.0 17:0.0 18:0.0 19:0.0 20:1.0 21:0.0 22:0.0 23:0.0 24:1.0 25:1.0 26:0.0 27:0.0 28:0.0 29:0.0 
-2.0 0:0.6399999856948853 1:0.14000000059604645 2:0.013000000268220901 3:-0.07000000029802322 4:-0.04800000041723251 5:-0.3869999945163727 6:0.010999999940395355 7:0.4000000059604645 8:0.9779999852180481 9:-0.4480000138282776 10:1.0 11:0.0 12:0.0 13:1.0 14:0.0 15:1.0 16:0.0 17:0.0 18:0.0 19:1.0 20:1.0 21:0.0 22:0.0 23:0.0 24:1.0 25:0.0 26:0.0 27:1.0 28:0.0 29:0.0 
-1.5258107241769725 0:0.4399999976158142 1:-0.019999999552965164 2:0.21299999952316284 3:0.20000000298023224 4:0.41600000858306885 5:-0.2930000126361847 6:-0.21699999272823334 7:0.1550000011920929 8:0.2529999911785126 9:0.35600000619888306 10:0.0 11:0.0 12:0.0 13:0.0 14:0.0 15:0.0 16:0.0 17:1.0 18:1.0 19:0.0 20:1.0 21:0.0 22:0.0 23:1.0 24:0.0 25:0.0 26:0.0 27:1.0 28:0.0 29:1.0 
-1.3924313464566451 0:0.0 1:0.14000000059604645 2:-0.03999999910593033 3:0.47999998927116394 4:0.1599999964237213 5:-0.3930000066757202 6:0.26899999380111694 7:0.0 8:0.24899999797344208 9:-0.3919999897480011 10:1.0 11:1.0 12:0.0 13:0.0 14:0.0 15:0.0 16:0.0 17:1.0 18:1.0 19:0.0 20:1.0 21:0.0 22:1.0 23:0.0 24:0.0 25:1.0 26:0.0 27:0.0 28:1.0 29:0.0 
-2.0 0:0.3199999928474426 1:0.1599999964237213 2:0.4269999861717224 3:0.07000000029802322 4:0.29600000381469727 5:0.3869999945163727 6:0.4059999883174896 7:0.0 8:0.3160000145435333 9:0.15199999511241913 10:0.0 11:0.0 12:0.0 13:0.0 14:0.0 15:0.0 16:0.0 17:1.0 18:0.0 19:1.0 20:1.0 21:0.0 22:1.0 23:0.0 24:0.0 25:0.0 26:0.0 27:1.0 28:0.0 29:1.0 
-0.5195793496759881 0:0.0 1:0.07999999821186066 2:0.17299999296665192 3:0.11999999731779099 4:0.00800000037997961 5:0.28700000047683716 6:-0.07400000095367432 7:0.23999999463558197 8:0.05299999937415123 9:0.3799999952316284 10:1.0 11:0.0 12:0.0 13:0.0 14:1.0 15:0.0 16:0.0 17:1.0 18:1.0 19:0.0 20:0.0 21:0.0 22:0.0 23:0.0 24:0.0 25:0.0 26:1.0 27:0.0 28:1.0 29:0.0 
-2.0 0:0.20000000298023224 1:0.5 2:0.013000000268220901 3:0.12999999523162842 4:0.2800000011920929 5:0.2930000126361847 6:0.006000000052154064 7:0.019999999552965164 8:0.49799999594688416 9:0.5479999780654907 10:1.0 11:0.0 12:0.0 13:0.0 14:1.0 15:1.0 16:0.0 17:0.0 18:1.0 19:0.0 20:1.0 21:0.0 22:0.0 23:1.0 24:0.0 25:0.0 26:0.0 27:1.0 28:0.0 29:1.0 
-2.0 0:0.3199999928474426 1:-0.03999999910593033 2:0.0 3:0.23999999463558197 4:0.12800000607967377 5:0.2329999953508377 6:0.20000000298023224 7:0.15000000596046448 8:-0.027000000700354576 9:-0.3959999978542328 10:0.0 11:0.0 12:1.0 13:0.0 14:0.0 15:1.0 16:0.0 17:0.0 18:0.0 19:1.0 20:0.0 21:1.0 22:0.0 23:0.0 24:0.0 25:0.0 26:0.0 27:1.0 28:1.0 29:0.0 
-2.0 0:0.1599999964237213 1:0.11999999731779099 2:0.013000000268220901 3:-0.03999999910593033 4:-0.23999999463558197 5:0.3930000066757202 6:0.2800000011920929 7:0.32499998807907104 8:-0.013000000268220901 9:0.35199999809265137 10:0.0 11:0.0 12:0.0 13:0.0 14:0.0 15:1.0 16:0.0 17:0.0 18:0.0 19:0.0 20:1.0 21:0.0 22:0.0 23:1.0 24:0.0 25:0.0 26:0.0 27:1.0 28:1.0 29:0.0 
-2.0 0:-0.07999999821186066 1:-0.07999999821186066 2:0.34700000286102295 3:0.03999999910593033 4:0.00800000037997961 5:0.5600000023841858 6:0.09700000286102295 7:0.03500000014901161 8:0.5870000123977661 9:0.14000000059604645 10:1.0 11:0.0 12:0.0 13:0.0 14:1.0 15:0.0 16:1.0 17:0.0 18:0.0 19:0.0 20:0.0 21:0.0 22:0.0 23:0.0 24:1.0 25:1.0 26:0.0 27:0.0 28:1.0 29:0.0 
-0.9355569954287456 0:0.11999999731779099 1:-0.019999999552965164 2:0.10700000077486038 3:0.15000000596046448 4:0.2160000056028366 5:0.8999999761581421 6:0.15399999916553497 7:0.20499999821186066 8:-0.39100000262260437 9:-0.08799999952316284 10:1.0 11:0.0 12:0.0 13:1.0 14:0.0 15:0.0 16:1.0 17:0.0 18:1.0 19:0.0 20:1.0 21:0.0 22:0.0 23:0.0 24:0.0 25:1.0 26:0.0 27:0.0 28:1.0 29:0.0 
-1.7043163369565513 0:0.3199999928474426 1:-0.11999999731779099 2:0.2930000126361847 3:0.33000001311302185 4:0.15199999511241913 5:0.4399999976158142 6:-0.023000000044703484 7:0.6349999904632568 8:0.1379999965429306 9:0.25999999046325684 10:1.0 11:0.0 12:0.0 13:0.0 14:1.0 15:0.0 16:0.0 17:1.0 18:0.0 19:1.0 20:0.0 21:0.0 22:0.0 23:0.0 24:1.0 25:0.0 26:0.0 27:0.0 28:1.0 29:0.0 
-2.0 0:0.20000000298023224 1:0.36000001430511475 2:0.6399999856948853 3:0.4099999964237213 4:0.03999999910593033 5:0.05299999937415123 6:0.15399999916553497 7:0.20000000298023224 8:-0.11100000143051147 9:0.15600000321865082 10:0.0 11:0.0 12:0.0 13:0.0 14:0.0 15:0.0 16:0.0 17:0.0 18:0.0 19:0.0 20:1.0 21:0.0 22:0.0 23:0.0 24:0.0 25:0.0 26:0.0 27:1.0 28:0.0 29:0.0 
-0.5849277748307421 0:-0.07999999821186066 1:-0.11999999731779099 2:-0.07999999821186066 3:0.10000000149011612 4:0.335999995470047 5:0.5600000023841858 6:0.4909999966621399 7:-0.014999999664723873 8:0.2759999930858612 9:0.0 10:0.0 11:0.0 12:0.0 13:0.0 14:1.0 15:0.0 16:1.0 17:0.0 18:1.0 19:0.0 20:0.0 21:0.0 22:1.0 23:0.0 24:0.0 25:1.0 26:0.0 27:0.0 28:0.0 29:0.0 
-2.0 0:0.0 1:-0.019999999552965164 2:0.13300000131130219 3:0.1599999964237213 4:0.07999999821186066 5:-0.2329999953508377 6:0.5709999799728394 7:0.6050000190734863 8:0.5960000157356262 9:-0.12800000607967377 10:1.0 11:0.0 12:0.0 13:0.0 14:0.0 15:0.0 16:0.0 17:1.0 18:0.0 19:0.0 20:1.0 21:0.0 22:0.0 23:0.0 24:0.0 25:0.0 26:0.0 27:0.0 28:1.0 29:0.0 
-2.0 0:0.47999998927116394 1:0.10000000149011612 2:0.09300000220537186 3:0.4300000071525574 4:0.2240000069141388 5:0.013000000268220901 6:-0.25699999928474426 7:0.5199999809265137 8:0.2529999911785126 9:0.2240000069141388 10:1.0 11:0.0 12:0.0 13:1.0 14:0.0 15:1.0 16:0.0 17:0.0 18:1.0 19:0.0 20:1.0 21:0.0 22:0.0 23:0.0 24:1.0 25:1.0 26:0.0 27:0.0 28:0.0 29:0.0 
-0.5705291745828244 0:0.4000000059604645 1:0.5600000023841858 2:0.1599999964237213 3:0.05000000074505806 4:0.15199999511241913 5:0.0729999989271164 6:0.25699999928474426 7:0.28999999165534973 8:0.40400001406669617 9:-0.14399999380111694 10:0.0 11:0.0 12:1.0 13:0.0 14:0.0 15:1.0 16:0.0 17:0.0 18:0.0 19:0.0 20:0.0 21:1.0 22:0.0 23:0.0 24:0.0 25:0.0 26:1.0 27:0.0 28:1.0 29:0.0 
-1.3654439145066033 0:0.3199999928474426 1:-0.05999999865889549 2:0.2800000011920929 3:-0.029999999329447746 4:0.0 5:-0.20000000298023224 6:0.3140000104904175 7:0.4699999988079071 8:0.2669999897480011 9:0.052000001072883606 10:1.0 11:0.0 12:0.0 13:0.0 14:0.0 15:0.0 16:1.0 17:0.0 18:0.0 19:1.0 20:1.0 21:0.0 22:1.0 23:0.0 24:0.0 25:0.0 26:0.0 27:1.0 28:1.0 29:0.0 
-2.0 0:0.3199999928474426 1:-0.05999999865889549 2:0.21299999952316284 3:0.20999999344348907 4:0.3440000116825104 5:-0.032999999821186066 6:-0.09099999815225601 7:0.22499999403953552 8:0.4440000057220459 9:-0.07599999755620956 10:0.0 11:0.0 12:0.0 13:0.0 14:1.0 15:1.0 16:0.0 17:0.0 18:0.0 19:1.0 20:1.0 21:0.0 22:0.0 23:0.0 24:1.0 25:0.0 26:1.0 27:0.0 28:0.0 29:1.0 
-1.371085103189113 0:0.23999999463558197 1:0.07999999821186066 2:-0.20000000298023224 3:0.05999999865889549 4:-0.03200000151991844 5:0.6000000238418579 6:-0.04600000008940697 7:0.02500000037252903 8:0.37299999594688416 9:-0.12399999797344208 10:0.0 11:0.0 12:0.0 13:0.0 14:1.0 15:0.0 16:1.0 17:0.0 18:0.0 19:0.0 20:0.0 21:0.0 22:1.0 23:0.0 24:0.0 25:0.0 26:0.0 27:0.0 28:1.0 29:0.0 
-2.0 0:-0.11999999731779099 1:0.23999999463558197 2:0.8799999952316284 3:0.33000001311302185 4:0.24799999594688416 5:0.13300000131130219 6:0.11400000005960464 7:0.4000000059604645 8:0.39100000262260437 9:0.20399999618530273 10:1.0 11:1.0 12:0.0 13:0.0 14:0.0 15:1.0 16:0.0 17:0.0 18:0.0 19:1.0 20:1.0 21:0.0 22:1.0 23:0.0 24:0.0 25:0.0 26:1.0 27:0.0 28:1.0 29:0.0 
-2.0 0:0.47999998927116394 1:0.14000000059604645 2:0.37299999594688416 3:0.2800000011920929 4:0.04800000041723251 5:0.21299999952316284 6:0.20000000298023224 7:0.15000000596046448 8:0.16899999976158142 9:0.1599999964237213 10:1.0 11:0.0 12:0.0 13:1.0 14:0.0 15:1.0 16:0.0 17:0.0 18:0.0 19:0.0 20:1.0 21:0.0 22:0.0 23:0.0 24:1.0 25:1.0 26:0.0 27:0.0 28:1.0 29:0.0 
-2.0 0:-0.4399999976158142 1:0.20000000298023224 2:0.2800000011920929 3:0.30000001192092896 4:0.10400000214576721 5:-0.06700000166893005 6:0.1770000010728836 7:0.4749999940395355 8:0.03999999910593033 9:0.2919999957084656 10:0.0 11:0.0 12:0.0 13:0.0 14:0.0 15:1.0 16:0.0 17:0.0 18:0.0 19:1.0 20:0.0 21:0.0 22:0.0 23:0.0 24:0.0 25:0.0 26:0.0 27:1.0 28:1.0 29:0.0 
-2.0 0:0.03999999910593033 1:0.30000001192092896 2:-0.03999999910593033 3:-0.05000000074505806 4:0.1599999964237213 5:0.0 6:0.6629999876022339 7:0.125 8:0.17800000309944153 9:0.5040000081062317 10:0.0 11:0.0 12:1.0 13:0.0 14:0.0 15:1.0 16:0.0 17:0.0 18:1.0 19:0.0 20:0.0 21:0.0 22:0.0 23:0.0 24:0.0 25:1.0 26:0.0 27:0.0 28:0.0 29:1.0 
-2.0 0:0.07999999821186066 1:-0.10000000149011612 2:0.03999999910593033 3:-0.44999998807907104 4:0.09600000083446503 5:0.31299999356269836 6:-0.09099999815225601 7:0.2199999988079071 8:-0.17800000309944153 9:0.2240000069141388 10:1.0 11:0.0 12:0.0 13:0.0 14:1.0 15:0.0 16:0.0 17:1.0 18:1.0 19:0.0 20:0.0 21:0.0 22:0.0 23:0.0 24:1.0 25:0.0 26:0.0 27:0.0 28:1.0 29:0.0 
-1.568572939080901 0:0.23999999463558197 1:0.23999999463558197 2:0.027000000700354576 3:0.1599999964237213 4:0.47200000286102295 5:-0.18700000643730164 6:-0.17100000381469727 7:-0.009999999776482582 8:0.03099999949336052 9:-0.11999999731779099 10:1.0 11:0.0 12:0.0 13:1.0 14:0.0 15:0.0 16:0.0 17:1.0 18:1.0 19:0.0 20:1.0 21:0.0 22:1.0 23:0.0 24:0.0 25:1.0 26:0.0 27:0.0 28:1.0 29:0.0 
-2.0 0:0.1599999964237213 1:0.0 2:-0.4129999876022339 3:0.07999999821186066 4:0.328000009059906 5:0.367000013589859 6:0.07999999821186066 7:0.4950000047683716 8:0.5019999742507935 9:0.04399999976158142 10:0.0 11:0.0 12:0.0 13:0.0 14:0.0 15:0.0 16:1.0 17:0.0 18:1.0 19:0.0 20:0.0 21:0.0 22:0.0 23:0.0 24:0.0 25:0.0 26:0.0 27:1.0 28:0.0 29:1.0 
-2.0 0:0.20000000298023224 1:0.36000001430511475 2:0.6399999856948853 3:0.4099999964237213 4:0.03999999910593033 5:0.05299999937415123 6:0.15399999916553497 7:0.20000000298023224 8:-0.11100000143051147 9:0.15600000321865082 10:0.0 11:0.0 12:0.0 13:0.0 14:0.0 15:0.0 16:0.0 17:0.0 18:0.0 19:0.0 20:1.0 21:0.0 22:0.0 23:0.0 24:0.0 25:0.0 26:0.0 27:1.0 28:0.0 29:0.0 
-2.0 0:-0.07999999821186066 1:-0.11999999731779099 2:-0.07999999821186066 3:0.10000000149011612 4:0.335999995470047 5:0.5600000023841858 6:0.4909999966621399 7:-0.014999999664723873 8:0.2759999930858612 9:0.0 10:0.0 11:0.0 12:0.0 13:0.0 14:1.0 15:0.0 16:1.0 17:0.0 18:1.0 19:0.0 20:0.0 21:0.0 22:1.0 23:0.0 24:0.0 25:1.0 26:0.0 27:0.0 28:0.0 29:0.0 
-2.0 0:0.7200000286102295 1:0.41999998688697815 2:-0.11999999731779099 3:0.05000000074505806 4:-0.01600000075995922 5:0.15299999713897705 6:0.023000000044703484 7:0.5849999785423279 8:0.18700000643730164 9:-0.20800000429153442 10:1.0 11:0.0 12:0.0 13:0.0 14:0.0 15:1.0 16:0.0 17:0.0 18:0.0 19:0.0 20:0.0 21:0.0 22:0.0 23:0.0 24:1.0 25:0.0 26:0.0 27:0.0 28:0.0 29:0.0 
-2.0 0:0.47999998927116394 1:0.10000000149011612 2:0.09300000220537186 3:0.4300000071525574 4:0.2240000069141388 5:0.013000000268220901 6:-0.25699999928474426 7:0.5199999809265137 8:0.2529999911785126 9:0.2240000069141388 10:1.0 11:0.0 12:0.0 13:1.0 14:0.0 15:1.0 16:0.0 17:0.0 18:1.0 19:0.0 20:1.0 21:0.0 22:0.0 23:0.0 24:1.0 25:1.0 26:0.0 27:0.0 28:0.0 29:0.0 
-2.0 0:0.4000000059604645 1:0.5600000023841858 2:0.1599999964237213 3:0.05000000074505806 4:0.15199999511241913 5:0.0729999989271164 6:0.25699999928474426 7:0.28999999165534973 8:0.40400001406669617 9:-0.14399999380111694 10:0.0 11:0.0 12:1.0 13:0.0 14:0.0 15:1.0 16:0.0 17:0.0 18:0.0 19:0.0 20:0.0 21:1.0 22:0.0 23:0.0 24:0.0 25:0.0 26:1.0 27:0.0 28:1.0 29:0.0 
-2.0 0:0.3199999928474426 1:-0.05999999865889549 2:0.2800000011920929 3:-0.029999999329447746 4:0.0 5:-0.20000000298023224 6:0.3140000104904175 7:0.4699999988079071 8:0.2669999897480011 9:0.052000001072883606 10:1.0 11:0.0 12:0.0 13:0.0 14:0.0 15:0.0 16:1.0 17:0.0 18:0.0 19:1.0 20:1.0 21:0.0 22:1.0 23:0.0 24:0.0 25:0.0 26:0.0 27:1.0 28:1.0 29:0.0 
-2.0 0:0.3199999928474426 1:-0.05999999865889549 2:0.21299999952316284 3:0.20999999344348907 4:0.3440000116825104 5:-0.032999999821186066 6:-0.09099999815225601 7:0.22499999403953552 8:0.4440000057220459 9:-0.07599999755620956 10:0.0 11:0.0 12:0.0 13:0.0 14:1.0 15:1.0 16:0.0 17:0.0 18:0.0 19:1.0 20:1.0 21:0.0 22:0.0 23:0.0 24:1.0 25:0.0 26:1.0 27:0.0 28:0.0 29:1.0 
-2.0 0:-0.11999999731779099 1:0.23999999463558197 2:0.8799999952316284 3:0.33000001311302185 4:0.24799999594688416 5:0.13300000131130219 6:0.11400000005960464 7:0.4000000059604645 8:0.39100000262260437 9:0.20399999618530273 10:1.0 11:1.0 12:0.0 13:0.0 14:0.0 15:1.0 16:0.0 17:0.0 18:0.0 19:1.0 20:1.0 21:0.0 22:1.0 23:0.0 24:0.0 25:0.0 26:1.0 27:0.0 28:1.0 29:0.0 
-1.79428215413501 0:0.47999998927116394 1:-0.019999999552965164 2:0.05299999937415123 3:0.3799999952316284 4:0.07199999690055847 5:0.31299999356269836 6:0.16599999368190765 7:0.10999999940395355 8:0.11599999666213989 9:0.0560000017285347 10:0.0 11:0.0 12:0.0 13:0.0 14:0.0 15:0.0 16:0.0 17:0.0 18:1.0 19:0.0 20:1.0 21:0.0 22:0.0 23:1.0 24:0.0 25:1.0 26:0.0 27:0.0 28:0.0 29:0.0 
-1.8668026155694541 0:0.20000000298023224 1:0.20000000298023224 2:-0.21299999952316284 3:0.019999999552965164 4:0.335999995470047 5:0.44699999690055847 6:0.37700000405311584 7:0.11500000208616257 8:0.34700000286102295 9:-0.035999998450279236 10:0.0 11:0.0 12:1.0 13:0.0 14:0.0 15:0.0 16:1.0 17:0.0 18:0.0 19:1.0 20:1.0 21:0.0 22:0.0 23:0.0 24:1.0 25:0.0 26:1.0 27:0.0 28:0.0 29:0.0 
-2.0 0:0.47999998927116394 1:0.14000000059604645 2:0.37299999594688416 3:0.2800000011920929 4:0.04800000041723251 5:0.21299999952316284 6:0.20000000298023224 7:0.15000000596046448 8:0.16899999976158142 9:0.1599999964237213 10:1.0 11:0.0 12:0.0 13:1.0 14:0.0 15:1.0 16:0.0 17:0.0 18:0.0 19:0.0 20:1.0 21:0.0 22:0.0 23:0.0 24:1.0 25:1.0 26:0.0 27:0.0 28:1.0 29:0.0 
-2.0 0:-0.4399999976158142 1:0.20000000298023224 2:0.2800000011920929 3:0.30000001192092896 4:0.10400000214576721 5:-0.06700000166893005 6:0.1770000010728836 7:0.4749999940395355 8:0.03999999910593033 9:0.2919999957084656 10:0.0 11:0.0 12:0.0 13:0.0 14:0.0 15:1.0 16:0.0 17:0.0 18:0.0 19:1.0 20:0.0 21:0.0 22:0.0 23:0.0 24:0.0 25:0.0 26:0.0 27:1.0 28:1.0 29:0.0 
-2.0 0:0.20000000298023224 1:0.18000000715255737 2:0.3199999928474426 3:-0.009999999776482582 4:-0.03200000151991844 5:0.4269999861717224 6:-0.07400000095367432 7:0.125 8:0.34700000286102295 9:0.46000000834465027 10:0.0 11:0.0 12:0.0 13:0.0 14:1.0 15:0.0 16:0.0 17:1.0 18:0.0 19:1.0 20:1.0 21:0.0 22:0.0 23:1.0 24:0.0 25:0.0 26:1.0 27:0.0 28:0.0 29:1.0 
-2.0 0:0.07999999821186066 1:-0.10000000149011612 2:0.03999999910593033 3:-0.44999998807907104 4:0.09600000083446503 5:0.31299999356269836 6:-0.09099999815225601 7:0.2199999988079071 8:-0.17800000309944153 9:0.2240000069141388 10:1.0 11:0.0 12:0.0 13:0.0 14:1.0 15:0.0 16:0.0 17:1.0 18:1.0 19:0.0 20:0.0 21:0.0 22:0.0 23:0.0 24:1.0 25:0.0 26:0.0 27:0.0 28:1.0 29:0.0 
-2.0 0:0.23999999463558197 1:0.23999999463558197 2:0.027000000700354576 3:0.1599999964237213 4:0.47200000286102295 5:-0.18700000643730164 6:-0.17100000381469727 7:-0.009999999776482582 8:0.03099999949336052 9:-0.11999999731779099 10:1.0 11:0.0 12:0.0 13:1.0 14:0.0 15:0.0 16:0.0 17:1.0 18:1.0 19:0.0 20:1.0 21:0.0 22:1.0 23:0.0 24:0.0 25:1.0 26:0.0 27:0.0 28:1.0 29:0.0 
-2.0 0:0.1599999964237213 1:0.0 2:-0.4129999876022339 3:0.07999999821186066 4:0.328000009059906 5:0.367000013589859 6:0.07999999821186066 7:0.4950000047683716 8:0.5019999742507935 9:0.04399999976158142 10:0.0 11:0.0 12:0.0 13:0.0 14:0.0 15:0.0 16:1.0 17:0.0 18:1.0 19:0.0 20:0.0 21:0.0 22:0.0 23:0.0 24:0.0 25:0.0 26:0.0 27:1.0 28:0.0 29:1.0 
-0.9939258533754886 0:0.3199999928474426 1:0.4000000059604645 2:0.3070000112056732 3:0.07999999821186066 4:0.1599999964237213 5:0.3199999928474426 6:0.2290000021457672 7:0.07999999821186066 8:0.3070000112056732 9:0.019999999552965164 10:0.0 11:0.0 12:1.0 13:0.0 14:0.0 15:0.0 16:0.0 17:1.0 18:0.0 19:1.0 20:1.0 21:0.0 22:1.0 23:0.0 24:0.0 25:0.0 26:0.0 27:0.0 28:0.0 29:0.0 
-2.0 0:0.07999999821186066 1:-0.3199999928474426 2:0.34700000286102295 3:-0.12999999523162842 4:0.31200000643730164 5:-0.2199999988079071 6:-0.210999995470047 7:-0.07999999821186066 8:0.257999986410141 9:0.46399998664855957 10:1.0 11:0.0 12:0.0 13:0.0 14:0.0 15:0.0 16:1.0 17:0.0 18:1.0 19:0.0 20:1.0 21:0.0 22:0.0 23:0.0 24:1.0 25:0.0 26:0.0 27:1.0 28:0.0 29:0.0 
-2.0 0:-0.11999999731779099 1:-0.03999999910593033 2:-0.21299999952316284 3:0.30000001192092896 4:-0.19200000166893005 5:0.23999999463558197 6:0.010999999940395355 7:0.3400000035762787 8:0.08900000154972076 9:0.47200000286102295 10:0.0 11:1.0 12:0.0 13:0.0 14:0.0 15:0.0 16:0.0 17:1.0 18:1.0 19:0.0 20:0.0 21:0.0 22:0.0 23:0.0 24:0.0 25:1.0 26:0.0 27:0.0 28:1.0 29:0.0 
-0.15136614037043525 0:0.1599999964237213 1:0.20000000298023224 2:-0.2529999911785126 3:0.2800000011920929 4:0.3440000116825104 5:0.16699999570846558 6:0.6230000257492065 7:0.10499999672174454 8:0.09300000220537186 9:-0.3319999873638153 10:0.0 11:0.0 12:0.0 13:0.0 14:1.0 15:1.0 16:0.0 17:0.0 18:1.0 19:0.0 20:1.0 21:1.0 22:0.0 23:0.0 24:0.0 25:1.0 26:0.0 27:0.0 28:0.0 29:1.0 
-2.0 0:0.20000000298023224 1:0.0 2:0.09300000220537186 3:-0.18000000715255737 4:0.04800000041723251 5:0.18700000643730164 6:0.6909999847412109 7:-0.06499999761581421 8:0.48899999260902405 9:-0.012000000104308128 10:0.0 11:0.0 12:0.0 13:0.0 14:1.0 15:0.0 16:1.0 17:0.0 18:0.0 19:1.0 20:1.0 21:0.0 22:0.0 23:0.0 24:1.0 25:1.0 26:0.0 27:0.0 28:0.0 29:0.0 
-2.0 0:0.36000001430511475 1:0.019999999552965164 2:-0.027000000700354576 3:0.28999999165534973 4:0.03200000151991844 5:-0.2669999897480011 6:0.05700000002980232 7:0.2549999952316284 8:-0.1289999932050705 9:0.29600000381469727 10:1.0 11:0.0 12:0.0 13:0.0 14:1.0 15:0.0 16:1.0 17:0.0 18:1.0 19:0.0 20:1.0 21:0.0 22:0.0 23:0.0 24:0.0 25:1.0 26:0.0 27:0.0 28:0.0 29:1.0 
-2.0 0:0.36000001430511475 1:0.4000000059604645 2:0.2930000126361847 3:-0.23000000417232513 4:0.3440000116825104 5:0.08699999749660492 6:-0.05700000002980232 7:0.6150000095367432 8:0.03999999910593033 9:0.1599999964237213 10:1.0 11:0.0 12:0.0 13:0.0 14:0.0 15:0.0 16:1.0 17:0.0 18:0.0 19:1.0 20:1.0 21:0.0 22:0.0 23:0.0 24:0.0 25:1.0 26:0.0 27:0.0 28:1.0 29:0.0 
-2.0 0:0.11999999731779099 1:0.2199999988079071 2:0.5199999809265137 3:0.17000000178813934 4:-0.10400000214576721 5:0.5130000114440918 6:0.18299999833106995 7:-0.05999999865889549 8:0.20399999618530273 9:-0.004000000189989805 10:1.0 11:0.0 12:0.0 13:0.0 14:1.0 15:0.0 16:0.0 17:1.0 18:0.0 19:1.0 20:1.0 21:0.0 22:0.0 23:0.0 24:1.0 25:1.0 26:0.0 27:0.0 28:0.0 29:1.0 
-2.0 0:-0.03999999910593033 1:0.11999999731779099 2:0.20000000298023224 3:0.41999998688697815 4:0.5759999752044678 5:0.16699999570846558 6:0.39399999380111694 7:0.2849999964237213 8:0.004000000189989805 9:0.3880000114440918 10:0.0 11:0.0 12:1.0 13:0.0 14:0.0 15:0.0 16:1.0 17:0.0 18:0.0 19:1.0 20:1.0 21:0.0 22:1.0 23:0.0 24:0.0 25:1.0 26:0.0 27:0.0 28:0.0 29:0.0 
-2.0 0:0.4399999976158142 1:0.36000001430511475 2:-0.027000000700354576 3:0.029999999329447746 4:0.14399999380111694 5:-0.23999999463558197 6:0.20000000298023224 7:0.30000001192092896 8:-0.17299999296665192 9:0.2720000147819519 10:1.0 11:0.0 12:0.0 13:0.0 14:0.0 15:1.0 16:0.0 17:0.0 18:0.0 19:1.0 20:1.0 21:0.0 22:1.0 23:0.0 24:0.0 25:0.0 26:1.0 27:0.0 28:1.0 29:0.0 
-2.0 0:0.03999999910593033 1:0.0 2:0.17299999296665192 3:0.17000000178813934 4:-0.31200000643730164 5:0.5529999732971191 6:0.010999999940395355 7:0.04500000178813934 8:0.06700000166893005 9:0.47200000286102295 10:1.0 11:0.0 12:1.0 13:0.0 14:0.0 15:0.0 16:1.0 17:0.0 18:0.0 19:0.0 20:1.0 21:1.0 22:0.0 23:0.0 24:0.0 25:0.0 26:0.0 27:1.0 28:1.0 29:0.0 
-2.0 0:-0.07999999821186066 1:-0.10000000149011612 2:0.47999998927116394 3:0.6700000166893005 4:0.24799999594688416 5:-0.13300000131130219 6:0.8339999914169312 7:0.38999998569488525 8:-0.04399999976158142 9:0.5759999752044678 10:1.0 11:0.0 12:0.0 13:0.0 14:1.0 15:0.0 16:0.0 17:0.0 18:1.0 19:0.0 20:0.0 21:0.0 22:0.0 23:0.0 24:0.0 25:0.0 26:0.0 27:1.0 28:0.0 29:1.0 
-2.0 0:0.3199999928474426 1:0.47999998927116394 2:0.3070000112056732 3:0.0 4:0.3919999897480011 5:0.2529999911785126 6:-0.09099999815225601 7:0.3700000047683716 8:-0.19599999487400055 9:0.35600000619888306 10:0.0 11:0.0 12:0.0 13:0.0 14:0.0 15:1.0 16:0.0 17:0.0 18:0.0 19:1.0 20:1.0 21:0.0 22:0.0 23:0.0 24:1.0 25:0.0 26:0.0 27:0.0 28:0.0 29:1.0 
-2.0 0:0.07999999821186066 1:0.36000001430511475 2:0.3330000042915344 3:0.2800000011920929 4:0.30399999022483826 5:0.22699999809265137 6:-0.05700000002980232 7:0.17499999701976776 8:0.49300000071525574 9:0.2840000092983246 10:1.0 11:1.0 12:0.0 13:0.0 14:0.0 15:0.0 16:0.0 17:1.0 18:1.0 19:0.0 20:1.0 21:0.0 22:0.0 23:0.0 24:1.0 25:0.0 26:1.0 27:0.0 28:0.0 29:1.0 
-2.0 0:0.11999999731779099 1:-0.3799999952316284 2:0.3330000042915344 3:0.6100000143051147 4:0.20000000298023224 5:0.2070000022649765 6:0.46299999952316284 7:-0.019999999552965164 8:0.027000000700354576 9:0.41999998688697815 10:0.0 11:1.0 12:0.0 13:0.0 14:0.0 15:0.0 16:0.0 17:1.0 18:0.0 19:0.0 20:1.0 21:0.0 22:0.0 23:1.0 24:0.0 25:0.0 26:0.0 27:0.0 28:1.0 29:0.0 
-2.0 0:0.6399999856948853 1:-0.019999999552965164 2:0.18700000643730164 3:0.5799999833106995 4:0.4480000138282776 5:0.3529999852180481 6:-0.006000000052154064 7:0.019999999552965164 8:0.23999999463558197 9:-0.0560000017285347 10:0.0 11:0.0 12:1.0 13:0.0 14:0.0 15:0.0 16:0.0 17:0.0 18:0.0 19:0.0 20:0.0 21:0.0 22:0.0 23:1.0 24:0.0 25:0.0 26:0.0 27:0.0 28:1.0 29:0.0 
-0.5665349268751821 0:-0.11999999731779099 1:0.5600000023841858 2:0.3070000112056732 3:0.09000000357627869 4:0.2720000147819519 5:0.28700000047683716 6:0.296999990940094 7:0.23499999940395355 8:-0.004000000189989805 9:0.00800000037997961 10:0.0 11:0.0 12:0.0 13:0.0 14:0.0 15:0.0 16:0.0 17:0.0 18:0.0 19:0.0 20:1.0 21:0.0 22:0.0 23:0.0 24:1.0 25:0.0 26:0.0 27:1.0 28:0.0 29:0.0 
-2.0 0:0.20000000298023224 1:0.14000000059604645 2:-0.07999999821186066 3:0.38999998569488525 4:0.7039999961853027 5:-0.25999999046325684 6:0.10899999737739563 7:0.4000000059604645 8:0.20000000298023224 9:0.7360000014305115 10:1.0 11:0.0 12:0.0 13:1.0 14:0.0 15:0.0 16:0.0 17:0.0 18:1.0 19:0.0 20:1.0 21:0.0 22:0.0 23:1.0 24:0.0 25:0.0 26:0.0 27:1.0 28:1.0 29:0.0 
-2.0 0:0.07999999821186066 1:0.3799999952316284 2:0.07999999821186066 3:0.4099999964237213 4:-0.04800000041723251 5:0.032999999821186066 6:0.27399998903274536 7:0.02500000037252903 8:-0.4580000042915344 9:-0.11999999731779099 10:0.0 11:0.0 12:0.0 13:0.0 14:1.0 15:0.0 16:1.0 17:0.0 18:1.0 19:0.0 20:0.0 21:0.0 22:0.0 23:0.0 24:1.0 25:0.0 26:1.0 27:0.0 28:0.0 29:1.0 
-1.6643582011683342 0:0.11999999731779099 1:0.25999999046325684 2:0.3199999928474426 3:-0.10999999940395355 4:0.23199999332427979 5:-0.007000000216066837 6:-0.13699999451637268 7:0.18000000715255737 8:-0.008999999612569809 9:0.5720000267028809 10:1.0 11:0.0 12:0.0 13:0.0 14:1.0 15:1.0 16:0.0 17:0.0 18:1.0 19:0.0 20:1.0 21:0.0 22:1.0 23:0.0 24:0.0 25:0.0 26:0.0 27:1.0 28:0.0 29:0.0 
-1.66062141493938 0:0.23999999463558197 1:0.14000000059604645 2:0.546999990940094 3:0.33000001311302185 4:0.0560000017285347 5:0.032999999821186066 6:0.3310000002384186 7:-0.19499999284744263 8:0.289000004529953 9:0.035999998450279236 10:0.0 11:0.0 12:0.0 13:1.0 14:0.0 15:0.0 16:0.0 17:0.0 18:1.0 19:0.0 20:1.0 21:0.0 22:1.0 23:0.0 24:0.0 25:0.0 26:1.0 27:0.0 28:0.0 29:0.0 
-2.0 0:0.2800000011920929 1:0.03999999910593033 2:0.027000000700354576 3:-0.2199999988079071 4:0.671999990940094 5:0.2329999953508377 6:-0.04600000008940697 7:0.11999999731779099 8:0.4129999876022339 9:-0.18000000715255737 10:1.0 11:0.0 12:0.0 13:1.0 14:0.0 15:1.0 16:0.0 17:0.0 18:1.0 19:0.0 20:1.0 21:0.0 22:0.0 23:0.0 24:1.0 25:0.0 26:0.0 27:1.0 28:0.0 29:1.0 
-2.0 0:0.1599999964237213 1:0.25999999046325684 2:0.1469999998807907 3:0.019999999552965164 4:-0.17599999904632568 5:0.4129999876022339 6:0.4339999854564667 7:0.1550000011920929 8:0.035999998450279236 9:0.5320000052452087 10:0.0 11:0.0 12:0.0 13:0.0 14:0.0 15:0.0 16:0.0 17:1.0 18:0.0 19:0.0 20:0.0 21:0.0 22:0.0 23:0.0 24:1.0 25:0.0 26:1.0 27:0.0 28:0.0 29:1.0 
-2.0 0:0.3199999928474426 1:0.3199999928474426 2:0.4000000059604645 3:0.03999999910593033 4:-0.15199999511241913 5:0.30000001192092896 6:0.5600000023841858 7:0.029999999329447746 8:-0.04899999871850014 9:0.3400000035762787 10:1.0 11:1.0 12:0.0 13:0.0 14:0.0 15:1.0 16:0.0 17:0.0 18:1.0 19:0.0 20:1.0 21:1.0 22:0.0 23:0.0 24:0.0 25:1.0 26:0.0 27:0.0 28:1.0 29:0.0 
-2.0 0:0.3199999928474426 1:0.23999999463558197 2:0.10700000077486038 3:0.3100000023841858 4:0.0560000017285347 5:0.453000009059906 6:0.17100000381469727 7:-0.004999999888241291 8:0.20399999618530273 9:0.18799999356269836 10:0.0 11:1.0 12:0.0 13:0.0 14:0.0 15:0.0 16:1.0 17:0.0 18:1.0 19:0.0 20:0.0 21:0.0 22:0.0 23:0.0 24:0.0 25:0.0 26:1.0 27:0.0 28:0.0 29:0.0 
-2.0 0:0.11999999731779099 1:-0.03999999910593033 2:0.21299999952316284 3:-0.12999999523162842 4:0.46399998664855957 5:0.5270000100135803 6:0.42899999022483826 7:0.0949999988079071 8:-0.03999999910593033 9:0.06800000369548798 10:0.0 11:0.0 12:0.0 13:0.0 14:0.0 15:0.0 16:0.0 17:0.0 18:1.0 19:0.0 20:0.0 21:1.0 22:0.0 23:0.0 24:0.0 25:0.0 26:1.0 27:0.0 28:0.0 29:1.0 
-0.5978324735294863 0:0.03999999910593033 1:0.23999999463558197 2:0.18700000643730164 3:0.25999999046325684 4:-0.13600000739097595 5:0.3070000112056732 6:0.10300000011920929 7:0.07500000298023224 8:-0.257999986410141 9:-0.15600000321865082 10:0.0 11:0.0 12:0.0 13:0.0 14:1.0 15:0.0 16:1.0 17:0.0 18:1.0 19:0.0 20:0.0 21:0.0 22:0.0 23:1.0 24:0.0 25:0.0 26:0.0 27:0.0 28:1.0 29:0.0 
-2.0 0:0.6000000238418579 1:0.3400000035762787 2:0.46700000762939453 3:0.44999998807907104 4:0.9039999842643738 5:-0.08699999749660492 6:0.23399999737739563 7:-0.25999999046325684 8:0.47999998927116394 9:0.09200000017881393 10:1.0 11:0.0 12:0.0 13:0.0 14:1.0 15:0.0 16:0.0 17:1.0 18:0.0 19:1.0 20:0.0 21:0.0 22:0.0 23:0.0 24:1.0 25:0.0 26:0.0 27:0.0 28:0.0 29:0.0 
-2.0 0:0.36000001430511475 1:0.4000000059604645 2:0.13300000131130219 3:0.49000000953674316 4:0.0 5:0.7269999980926514 6:0.25699999928474426 7:-0.20499999821186066 8:0.18199999630451202 9:0.3160000145435333 10:0.0 11:1.0 12:0.0 13:0.0 14:0.0 15:0.0 16:0.0 17:0.0 18:1.0 19:0.0 20:0.0 21:0.0 22:0.0 23:1.0 24:0.0 25:0.0 26:0.0 27:0.0 28:1.0 29:0.0 
-2.0 0:0.5199999809265137 1:0.14000000059604645 2:0.03999999910593033 3:0.36000001430511475 4:-0.15199999511241913 5:-0.013000000268220901 6:0.23399999737739563 7:0.4300000071525574 8:-0.1509999930858612 9:0.5600000023841858 10:1.0 11:1.0 12:0.0 13:0.0 14:0.0 15:0.0 16:0.0 17:1.0 18:1.0 19:0.0 20:1.0 21:0.0 22:0.0 23:0.0 24:1.0 25:1.0 26:0.0 27:0.0 28:0.0 29:1.0 
-2.0 0:0.3199999928474426 1:0.5600000023841858 2:0.09300000220537186 3:0.1899999976158142 4:-0.03999999910593033 5:0.11999999731779099 6:0.5540000200271606 7:0.10999999940395355 8:0.515999972820282 9:-0.019999999552965164 10:0.0 11:0.0 12:0.0 13:1.0 14:0.0 15:0.0 16:1.0 17:0.0 18:0.0 19:0.0 20:1.0 21:0.0 22:0.0 23:1.0 24:0.0 25:0.0 26:0.0 27:1.0 28:1.0 29:0.0 
-0.931060358001903 0:0.5199999809265137 1:-0.019999999552965164 2:-0.10700000077486038 3:-0.5 4:0.19200000166893005 5:0.3529999852180481 6:0.39399999380111694 7:0.0 8:0.11100000143051147 9:0.2800000011920929 10:1.0 11:0.0 12:0.0 13:0.0 14:1.0 15:1.0 16:0.0 17:0.0 18:0.0 19:0.0 20:1.0 21:0.0 22:0.0 23:0.0 24:0.0 25:0.0 26:0.0 27:1.0 28:1.0 29:0.0 
-2.0 0:0.47999998927116394 1:0.23999999463558197 2:0.13300000131130219 3:0.25 4:0.3199999928474426 5:0.27300000190734863 6:-0.28600001335144043 7:-0.04500000178813934 8:0.2759999930858612 9:1.0160000324249268 10:0.0 11:0.0 12:0.0 13:0.0 14:0.0 15:0.0 16:1.0 17:0.0 18:0.0 19:0.0 20:1.0 21:1.0 22:0.0 23:0.0 24:0.0 25:0.0 26:0.0 27:1.0 28:0.0 29:1.0 
-0.3297922614910168 0:0.1599999964237213 1:0.0 2:0.23999999463558197 3:0.46000000834465027 4:0.1120000034570694 5:-0.3869999945163727 6:0.3490000069141388 7:0.4300000071525574 8:0.1469999998807907 9:0.2759999930858612 10:1.0 11:0.0 12:0.0 13:0.0 14:1.0 15:0.0 16:1.0 17:0.0 18:1.0 19:0.0 20:0.0 21:1.0 22:0.0 23:0.0 24:0.0 25:0.0 26:0.0 27:1.0 28:1.0 29:0.0 
-2.0 0:0.5199999809265137 1:-0.019999999552965164 2:-0.07999999821186066 3:0.8600000143051147 4:0.3919999897480011 5:0.07999999821186066 6:0.0860000029206276 7:0.2150000035762787 8:0.05299999937415123 9:0.14800000190734863 10:1.0 11:0.0 12:0.0 13:1.0 14:0.0 15:1.0 16:0.0 17:0.0 18:1.0 19:0.0 20:0.0 21:0.0 22:0.0 23:0.0 24:1.0 25:0.0 26:0.0 27:1.0 28:0.0 29:0.0 
-1.7283999819850924 0:0.0 1:-0.20000000298023224 2:0.11999999731779099 3:0.15000000596046448 4:0.6800000071525574 5:0.5329999923706055 6:0.2800000011920929 7:0.33000001311302185 8:0.49300000071525574 9:0.17599999904632568 10:0.0 11:0.0 12:1.0 13:0.0 14:0.0 15:1.0 16:0.0 17:0.0 18:0.0 19:1.0 20:0.0 21:1.0 22:0.0 23:0.0 24:0.0 25:0.0 26:0.0 27:1.0 28:1.0 29:0.0 
-2.0 0:0.3199999928474426 1:0.41999998688697815 2:-0.05299999937415123 3:0.23000000417232513 4:0.2639999985694885 5:0.019999999552965164 6:0.2290000021457672 7:0.23499999940395355 8:-0.1509999930858612 9:0.07199999690055847 10:0.0 11:0.0 12:0.0 13:0.0 14:0.0 15:1.0 16:0.0 17:0.0 18:0.0 19:0.0 20:1.0 21:0.0 22:0.0 23:0.0 24:0.0 25:1.0 26:0.0 27:0.0 28:0.0 29:0.0 
